<?xml version="1.0"?>
<opencv_storage>
<strawberrydetector type_id="opencv-haar-classifier">
  <size>
    40 40</size>
  <stages>
    <_>
      <trees>
        <_>
          <_>
            <feature>
              <rects>
                <_>
                  0 0 2 28 -1.</_>
                <_>
                  0 0 1 14 2.</_>
                <_>
                  1 14 1 14 2.</_></rects>
              <tilted>0</tilted></feature>
            <threshold>-5.1274369470775127e-003</threshold>
            <left_val>-1.</left_val>
            <right_val>0.9999995231628418</right_val></_></_></trees>
      <stage_threshold>0.9999995231628418</stage_threshold>
      <parent>-1</parent>
      <next>-1</next></_>
    <_>
      <trees>
        <_>
          <_>
            <feature>
              <rects>
                <_>
                  0 0 4 33 -1.</_>
                <_>
                  1 0 2 33 2.</_></rects>
              <tilted>0</tilted></feature>
            <threshold>-8.3944462239742279e-003</threshold>
            <left_val>-1.</left_val>
            <right_val>0.9999995231628418</right_val></_></_></trees>
      <stage_threshold>0.9999995231628418</stage_threshold>
      <parent>0</parent>
      <next>-1</next></_>
    <_>
      <trees>
        <_>
          <_>
            <feature>
              <rects>
                <_>
                  0 0 6 23 -1.</_>
                <_>
                  2 0 2 23 3.</_></rects>
              <tilted>0</tilted></feature>
            <threshold>-9.8055442795157433e-003</threshold>
            <left_val>-1.</left_val>
            <right_val>0.9999998807907105</right_val></_></_></trees>
      <stage_threshold>0.9999998807907105</stage_threshold>
      <parent>1</parent>
      <next>-1</next></_>
    <_>
      <trees>
        <_>
          <_>
            <feature>
              <rects>
                <_>
                  0 0 2 40 -1.</_>
                <_>
                  0 0 1 20 2.</_>
                <_>
                  1 20 1 20 2.</_></rects>
              <tilted>0</tilted></feature>
            <threshold>-5.3437859751284122e-003</threshold>
            <left_val>-1.</left_val>
            <right_val>0.9999995231628418</right_val></_></_></trees>
      <stage_threshold>0.9999995231628418</stage_threshold>
      <parent>2</parent>
      <next>-1</next></_>
    <_>
      <trees>
        <_>
          <_>
            <feature>
              <rects>
                <_>
                  0 0 3 9 -1.</_>
                <_>
                  1 3 1 3 9.</_></rects>
              <tilted>0</tilted></feature>
            <threshold>-0.0116608096286654</threshold>
            <left_val>-1.</left_val>
            <right_val>0.9999995231628418</right_val></_></_></trees>
      <stage_threshold>0.9999995231628418</stage_threshold>
      <parent>3</parent>
      <next>-1</next></_>
    <_>
      <trees>
        <_>
          <_>
            <feature>
              <rects>
                <_>
                  0 0 2 2 -1.</_>
                <_>
                  0 1 2 1 2.</_></rects>
              <tilted>0</tilted></feature>
            <threshold>-5.6515197502449155e-004</threshold>
            <left_val>-1.</left_val>
            <right_val>0.9999995231628418</right_val></_></_></trees>
      <stage_threshold>0.9999995231628418</stage_threshold>
      <parent>4</parent>
      <next>-1</next></_>
    <_>
      <trees>
        <_>
          <_>
            <feature>
              <rects>
                <_>
                  0 0 1 4 -1.</_>
                <_>
                  0 1 1 2 2.</_></rects>
              <tilted>0</tilted></feature>
            <threshold>-1.2779430253431201e-003</threshold>
            <left_val>-1.</left_val>
            <right_val>0.9999995231628418</right_val></_></_></trees>
      <stage_threshold>0.9999995231628418</stage_threshold>
      <parent>5</parent>
      <next>-1</next></_>
    <_>
      <trees>
        <_>
          <_>
            <feature>
              <rects>
                <_>
                  0 0 20 2 -1.</_>
                <_>
                  0 1 20 1 2.</_></rects>
              <tilted>0</tilted></feature>
            <threshold>-4.5066811144351959e-003</threshold>
            <left_val>-1.</left_val>
            <right_val>0.9999995231628418</right_val></_></_></trees>
      <stage_threshold>0.9999995231628418</stage_threshold>
      <parent>6</parent>
      <next>-1</next></_>
    <_>
      <trees>
        <_>
          <_>
            <feature>
              <rects>
                <_>
                  0 0 16 39 -1.</_>
                <_>
                  4 0 8 39 2.</_></rects>
              <tilted>0</tilted></feature>
            <threshold>-0.1074147969484329</threshold>
            <left_val>-1.</left_val>
            <right_val>0.9999995231628418</right_val></_></_></trees>
      <stage_threshold>0.9999995231628418</stage_threshold>
      <parent>7</parent>
      <next>-1</next></_>
    <_>
      <trees>
        <_>
          <_>
            <feature>
              <rects>
                <_>
                  0 0 6 8 -1.</_>
                <_>
                  0 2 6 4 2.</_></rects>
              <tilted>0</tilted></feature>
            <threshold>-5.3433361463248730e-003</threshold>
            <left_val>-1.</left_val>
            <right_val>0.9999995231628418</right_val></_></_></trees>
      <stage_threshold>0.9999995231628418</stage_threshold>
      <parent>8</parent>
      <next>-1</next></_></stages></strawberrydetector>
</opencv_storage>
